digraph Tree {
node [shape=box] ;
0 [label="X[4] <= 31.5\ngini = 0.483\nsamples = 1098\nvalue = [449, 649]"] ;
1 [label="X[4] <= 28.5\ngini = 0.183\nsamples = 471\nvalue = [423, 48]"] ;
0 -> 1 [labeldistance=2.5, labelangle=45, headlabel="True"] ;
2 [label="X[8] <= 0.5\ngini = 0.114\nsamples = 428\nvalue = [402, 26]"] ;
1 -> 2 ;
3 [label="gini = 0.097\nsamples = 413\nvalue = [392, 21]"] ;
2 -> 3 ;
4 [label="gini = 0.444\nsamples = 15\nvalue = [10, 5]"] ;
2 -> 4 ;
5 [label="X[8] <= 0.5\ngini = 0.5\nsamples = 43\nvalue = [21, 22]"] ;
1 -> 5 ;
6 [label="gini = 0.484\nsamples = 34\nvalue = [20, 14]"] ;
5 -> 6 ;
7 [label="gini = 0.198\nsamples = 9\nvalue = [1, 8]"] ;
5 -> 7 ;
8 [label="X[4] <= 36.5\ngini = 0.079\nsamples = 627\nvalue = [26, 601]"] ;
0 -> 8 [labeldistance=2.5, labelangle=-45, headlabel="False"] ;
9 [label="X[7] <= 0.5\ngini = 0.466\nsamples = 54\nvalue = [20, 34]"] ;
8 -> 9 ;
10 [label="gini = 0.069\nsamples = 28\nvalue = [1, 27]"] ;
9 -> 10 ;
11 [label="gini = 0.393\nsamples = 26\nvalue = [19, 7]"] ;
9 -> 11 ;
12 [label="X[4] <= 42.5\ngini = 0.021\nsamples = 573\nvalue = [6, 567]"] ;
8 -> 12 ;
13 [label="gini = 0.177\nsamples = 51\nvalue = [5, 46]"] ;
12 -> 13 ;
14 [label="gini = 0.004\nsamples = 522\nvalue = [1, 521]"] ;
12 -> 14 ;
}